11 100
7 -0.0051718694 0.0034422234 0.0065868637 0.010542268 -0.009251107 -0.009564697 0.0095191505 0.013693085 -0.009787763 -0.007333509 0.010583831 -0.004155904 -0.0028579023 0.00566611 -0.0017970086 -0.0020236536 0.0058717793 0.0010938011 -0.012974656 -0.014284328 0.006885986 0.0051174276 0.014678241 -0.00037291952 0.0064117424 -0.003005668 -0.00055523135 0.0065752044 -0.009230033 -0.002899834 -0.003791359 -0.0041644108 0.010671408 -0.00842768 -0.0021868479 0.002171753 0.012010768 -0.004852766 -0.00025167316 -0.004356022 -0.007992261 0.0049263956 -0.012977707 -0.0040181456 0.0011556806 4.9622882e-05 -0.008421239 0.011359597 0.0038616678 0.009566249 -0.0076295915 0.0026516311 -0.0067946143 -0.00051413587 0.0067443307 -0.006062526 0.0058201645 -0.008172336 -0.0030043782 0.008347172 -0.003201719 -0.00033616318 0.0012961671 -0.010185517 -0.004623349 0.0049510924 -0.0013366897 0.008026008 -0.0061662863 0.0011674926 0.006405574 0.011943825 0.0004811302 -0.0046544243 0.0035569596 0.0011797997 0.006998978 -0.0012709727 -0.0045023053 -0.009847936 -0.0017792641 0.001733034 0.00877961 0.008391519 -0.0075311 -0.0012977723 0.0074764853 -0.006005302 -0.0023527038 0.0072063757 0.0010668018 0.002326019 0.0047293673 -0.0011276774 0.016455881 0.0076529747 -0.00599843 -0.010169739 0.0031667952 0.0037613516
0 -0.01286134 0.0063675963 0.005948177 0.006240257 0.008135785 -0.0077188676 0.0031407473 0.009849903 -0.007255019 -0.008932406 0.001293372 -0.01091176 -0.004213086 0.0060800402 0.0061938553 0.0070184325 0.0091484515 0.0080964435 -0.0072850497 -0.0045734234 0.0011335125 -0.0052882656 0.014914234 -0.0112287095 0.006790975 0.003265296 -0.004474976 0.0048923213 -0.0030989912 0.008383433 0.014197476 -0.0074636224 -0.0003092704 -0.006748738 0.0041380897 0.006342167 0.00989725 0.007951769 0.009869685 0.009996729 0.010056448 -0.00792312 -0.013120393 0.0007092512 -0.0022068345 0.008200238 0.0059714825 -0.00051042374 0.0002972088 0.001478885 0.009048663 -0.011760478 -0.0018779351 0.002556431 -0.0032957634 0.007300122 0.009994401 0.0052667917 -0.0004859397 0.006268418 -0.009705513 0.00241163 0.00038213696 -0.007000809 0.00083033723 0.00793113 0.008113189 -0.0040682694 0.004644799 0.006067122 -0.0032883708 -0.005881847 0.007518118 0.011149922 -0.0017124233 -0.0055731786 -0.007903292 -0.0027561926 0.0041409764 -0.0042584897 -0.010156482 0.0023121373 0.007482309 -0.0061763246 -0.00018879496 -0.0053537115 0.00041102845 -0.010875378 0.00377312 -0.004736584 0.00095307064 0.0005213472 0.0033260386 -0.009407436 0.0026346473 0.004678213 0.008662041 -0.004680682 -0.0075170365 0.0017878882
8 -0.0044809943 0.0061023356 -0.005874637 -0.00088518905 0.008330776 0.0056305435 -0.0013089752 0.0066861524 -0.013095331 0.0029771428 -0.002593325 -0.005925222 0.011113905 -0.00053397985 0.010786293 -0.0063495655 0.00778825 0.010275325 -0.012458066 -0.009434026 -0.008518408 -0.005490486 0.003431944 -0.010012933 0.007708383 -0.0043868464 0.008989012 0.005523199 -0.007810542 0.005786519 0.010064711 -0.010871018 -0.00726415 -0.003405096 -0.008473358 0.0026247199 0.002862282 0.005218592 0.0015982499 -0.00017831339 -0.0030195822 0.0008052569 -0.0048563383 0.0077506904 0.0050294786 0.0049217776 0.0013545508 -0.0016549189 -0.005857774 -0.0014320285 0.0027289947 -0.00526443 -0.009053558 -0.008862596 -0.011943576 -0.007026441 -0.0006866439 -0.0055454485 -0.0061447225 -0.005515948 0.0030947106 -0.0045649027 0.014153467 -0.0004842792 -0.010209164 0.012199581 0.00762668 0.0073911976 -0.010083682 0.004730353 0.0045678024 0.008279973 0.0066499305 0.0072122742 -0.0043252693 0.009456315 0.008635821 0.003452325 -0.0042090393 -0.00034829316 0.00056892366 -0.010128731 -0.0054665897 8.284895e-05 -0.00012232145 -0.00934501 -0.004312286 -0.00820285 0.00960512 0.0001309559 -0.004779707 0.008125861 0.010125762 -0.005650139 0.013964343 0.007732253 0.009537263 -0.002166184 0.0105036395 -0.010275502
4 -0.014085031 0.013445745 0.0015785941 -0.0002404204 0.005271969 -0.0065630795 0.0064778314 0.012102002 -8.391103e-05 -0.011747387 0.012812776 0.0011152864 0.006758172 -0.007929156 0.012908106 -0.002411997 0.0122850975 -0.0052361554 -0.014067738 0.0010823293 0.0004570638 -0.002005947 0.019034177 0.007386055 -0.009870574 0.0031620574 0.0067136046 0.004273965 0.00021811675 0.0020640525 0.005888238 -0.0082119 -0.006399588 -0.0029907064 0.003801142 0.014252582 0.013612643 -0.0039481916 -0.009515453 0.010205112 0.006080808 0.0048037805 0.0015087444 -0.002126573 0.008847271 0.003330487 0.002243726 -0.000617165 -0.004855496 -0.0024669636 0.00526519 -0.0027843285 -0.012539232 -0.011500612 -0.009075973 -0.0016458238 0.0036052705 0.008104039 0.0063092276 -0.0062170965 -0.001516717 0.0039735897 0.01501148 -0.0038293595 0.00035151714 -0.0024806228 -0.0015029705 0.011156128 -0.0068694837 -0.011234947 0.0065950816 0.00011319686 0.0018365731 0.016261742 -0.0039245733 -0.0039988128 -0.0062636537 0.006118921 -0.0081742015 0.001209766 -0.006241129 0.0041782106 0.008073981 0.003727726 -0.003035843 -0.0068811337 0.010093498 0.0038347316 -0.00064700295 -0.009103389 -0.008283118 0.001866502 0.00047779627 -0.004279637 0.01804622 0.003034791 0.009929186 -0.01094907 0.00063709053 -0.00960286
2 -0.011626707 0.003816962 -0.0068206266 -0.0014721813 0.0043632966 0.0044049434 0.0035686423 0.006004172 -0.008338298 0.004748018 -0.0045929505 0.002772407 -0.007658143 0.0013791391 -0.0028483735 -0.004625554 -0.00076387887 0.0062364745 0.0027531907 -0.009157604 9.472679e-05 -0.009467609 0.014807716 0.008949756 -0.0030167066 0.0012568315 0.001039441 0.006464115 -0.010507233 0.001892647 0.011153544 -0.00022129336 0.0016042533 -0.010928892 0.0091834115 -0.003134578 -0.00019687673 0.0049836673 -0.00087653514 0.002186902 0.0040948763 -0.00791965 -0.013806247 0.01006776 0.007696248 -0.006879648 0.0033095202 0.0012631012 0.0041333833 -0.007664769 0.005308052 0.0026717589 0.008801421 -0.0056209997 -0.0035895908 -0.0089891 -0.009355768 -0.01080117 -0.0007925664 -0.008259622 0.004057493 -0.0070809145 0.007461984 -0.0011250193 -0.0060027465 0.0010847498 0.010544529 0.011456818 -0.007492005 0.008696656 -0.005459255 0.009047575 -0.0015584432 0.007805174 0.0025321043 0.00781669 -0.003300991 0.009260124 0.0070386706 -0.010812362 -0.009332621 -0.009398216 0.005609925 -0.002399667 -0.008729928 -0.011794734 0.009790427 0.0013209214 -0.009240615 -0.0051359064 0.0029051143 -0.0031368688 0.006483397 -0.0057876273 0.008197683 -0.006768768 0.00943313 0.002693936 0.0025946165 0.0009962621
6 -0.01198191 0.004145528 -0.00029154008 -0.009339266 -0.009321733 -0.0026053404 0.0059261164 0.006629525 -0.010112178 -0.009119345 -0.0038645929 -0.004367065 -0.0061414284 -0.010789397 -0.00058649725 -0.008721515 -0.0045408728 -0.0054813023 -0.0050052986 -0.0048877504 -0.01026992 -0.0012705659 0.013097121 0.0066773887 -0.007354311 -0.0035557966 0.0035860993 -0.009545315 0.0005896021 0.007982196 0.008972553 -0.011400804 -0.004306648 -0.008929765 0.00018219015 0.012207642 0.008355066 0.0066785263 0.0054461975 -0.0029003413 0.0112585835 -0.0081579145 -0.01051327 -0.0013701321 -0.0002825491 -0.0032268069 -0.00063918374 0.008537719 -0.0017593219 -0.0018413502 0.0035989997 -0.010214242 0.0067428406 0.008128159 -0.011539919 0.0016760376 0.010821251 -0.008904097 -0.0069173235 -0.008985151 0.00768892 -0.0013585256 0.0132412445 -0.00975055 0.0015460503 0.004727407 0.0008830935 0.0035456265 -0.009761554 -0.010047056 0.002821929 0.008653228 0.009775007 0.009346847 -0.0015541889 0.00965343 -0.010004222 0.0030690886 -0.00056061504 0.0036460462 0.007219139 -0.00802909 0.007671126 -0.0094662625 -0.0019124142 -0.011281585 -0.005270998 0.008837322 -0.0008398593 0.0032178317 0.009300602 0.01090628 -0.0075413682 -0.0040830933 0.014141115 0.006826137 0.0008485621 -0.01059902 0.0047889464 -0.00912372
1 0.0043276595 -0.0020587235 -0.00023015862 0.0023518072 0.00025792338 -0.0004634928 0.008678463 0.003638071 -0.0076574953 -0.004363427 0.008171535 -0.0006796848 0.0008023062 0.008619713 -0.0023879083 -0.00093035685 0.011939618 0.00707234 -0.0021262176 -0.013409286 0.0004355361 -0.0024502461 0.016097793 -2.7871138e-06 0.0014406032 0.002938052 -0.0016881372 -0.004234823 -0.001431862 -0.00085432327 0.010549349 0.006548593 -0.00013038618 0.002153616 -0.0062980955 0.0052048527 -0.00431534 -0.0074894596 -0.0063011292 -0.0085951295 0.009549335 -0.0063333847 0.004905559 -0.0067080203 0.004884449 0.010078206 -0.008474753 -0.009036998 -0.00519065 -0.0028346374 0.00046196274 -0.010692203 -0.010463777 0.0015753208 -0.010473311 -0.0106232315 -0.0019212514 -0.010045892 -0.006732019 -0.009962914 -0.0012713806 -0.005383352 0.011823888 -7.566922e-05 -0.006215716 0.008490373 -0.00648663 -0.0025799237 -0.010438089 -0.005366822 -0.0013077378 0.00966395 -0.0010161474 0.009076237 0.0061495686 -0.007016007 0.004273998 0.005950439 -0.004138427 0.005789695 0.0053092088 -0.008139047 -0.004613302 0.0034994252 -0.0029625779 -0.00944507 0.0107126 -0.0059523266 -0.0057397382 -2.2148919e-05 -0.0033984121 0.0023465382 -0.0026155256 -0.0014683224 0.00501848 0.002644436 0.011152868 -0.00808807 0.0006005709 0.0032160585
5 0.0063846773 -0.0033697346 0.009647652 0.009322949 -0.0042547947 -0.00066286884 0.0056570084 -0.0020940597 -0.007809194 -0.008219688 0.0005609379 -0.0014219998 0.005247882 -0.0027660963 0.0010787136 0.0026525892 0.0065349415 8.208288e-05 -0.008306436 -0.011714986 -0.00018252236 0.0067723 0.004884067 -0.009830553 -0.008063321 0.0070062373 -0.0039275247 0.0069741365 -0.007694493 0.009230045 -0.0046509854 0.0022463107 -0.0007797002 -0.0073440587 -0.0034721948 0.0006085713 -0.0041927034 -0.0006763679 -0.00793651 0.003079211 0.010507042 -0.002654046 -0.0026797615 0.0037393384 0.009615539 -0.0057261004 -0.0073877852 -0.0025509808 0.009028915 0.0009272382 -0.008455382 -0.0023725694 0.008706954 -0.008303361 -0.006535513 0.008804851 -0.008931365 0.0033702534 0.00092958316 0.006181148 0.007901689 -0.003165457 -0.0015645195 0.008272532 0.00079233316 0.007507589 -0.009922935 0.010750015 -0.0028473723 -0.0067315414 0.0033350796 0.0009813425 0.0056398488 -0.00033896088 -0.0045828647 0.0023020818 0.008372176 -0.0052268077 0.002226709 -0.008655248 -0.007476232 -0.0011881397 -0.007880273 0.0034053163 0.000996412 -0.004057137 0.0057982407 0.00950464 0.009087397 -0.0019435295 0.0016223076 -0.003188643 -0.007950481 0.0059153503 0.0008754731 0.00014917631 -0.0004124865 -0.005824909 0.005177425 -0.0053929705
3 -0.014677795 0.01258874 0.005533596 0.010763774 0.0072878394 0.0010498057 0.01324057 -0.00012707591 -0.012483537 0.0009091452 0.0068707243 -0.008751732 0.012566513 -0.0051410883 0.013529937 0.00055943517 -0.003598345 -0.0019746493 -0.012358237 -0.008400591 -7.759514e-05 0.009825302 0.017911853 -0.008379852 0.0034327812 0.0028805642 -0.0020601894 -0.0092559215 -0.00048949936 -0.0072127106 0.011126718 -0.009472075 0.006552627 0.009700092 -0.00031691798 0.0092973 0.0015805599 0.009234746 0.003664851 -0.009235584 -0.0002823408 0.0034391037 -0.00417802 -0.0004795084 0.0002747144 -0.0014881305 -0.00011554711 0.005717422 -0.006051588 -0.004183312 0.00069384294 -0.0019726322 -0.002846038 -0.006495957 0.0019075719 -0.0041420367 0.0030253835 -0.000972564 0.0068273153 -0.009135227 -0.008540446 -0.005719221 0.016454453 -0.003783929 -0.013630086 0.0023115021 -0.005384566 0.0087387785 -0.0140505675 0.0015658865 -0.0088697765 0.0053634676 0.008514625 0.013096368 -0.009101131 -0.0053307647 -0.007559337 -0.0088150855 -0.011938341 -0.0027926683 -0.0013767829 -0.009431966 0.010113246 0.0024285098 0.0044100494 -0.0022056887 0.0017752477 -0.0086756125 -0.0010696038 0.0049534133 -0.0060025426 0.003802511 0.004187565 -0.0028381513 0.017524337 0.01138117 0.0062069627 0.004473348 0.009174455 -0.009316246
9 -0.010400525 -0.0035265647 -0.0069691516 0.009947021 -0.0012521764 -0.008929399 -0.0012660889 0.009756585 -0.007982012 -0.0071233734 0.0041878116 -0.00542337 3.806852e-06 2.1997559e-05 0.00018840759 0.008470248 0.0070115444 -0.009823065 0.0019419317 -0.011794451 -2.0969495e-05 0.0041252947 0.0028445648 -0.0033504048 0.008109203 -0.003757019 -0.0074280677 0.010495021 -0.004214841 -0.0033754115 0.013421571 0.0011012851 0.004966608 0.008143966 -0.00837913 0.009497922 0.0056019584 0.0059780376 0.0015224518 0.005388638 0.007064478 0.0056153713 -0.0076200087 -0.0038052585 0.0012515679 0.0028640695 -0.0036779826 0.0075489124 0.003288709 0.0076627037 0.0037580933 0.0062356465 -0.0033882384 0.006598118 0.0012856165 -0.009802427 -0.003238594 -0.0038969456 0.0055496823 -0.0026085612 -0.0040908726 0.007154286 0.015499222 -0.003790139 -0.00844865 -0.0022321823 -0.00496616 -0.00701541 -0.0022517364 -0.0052400543 0.0031196442 0.009165778 -0.001961922 -0.0047087986 0.0005033367 -0.006137551 0.0017271216 -0.0039721592 0.0058857887 -0.000628042 0.0022474993 -0.004592196 0.001283865 0.008663076 -0.00018902129 -0.009884057 -0.006577471 0.00029395762 0.007430937 0.005545112 -0.009891398 0.010890455 0.0054424615 0.0060586245 0.016876921 -0.0052712667 -0.005732083 0.0032686105 0.012039761 0.00069040357
10 0.0043127853 0.00022643425 0.008595681 -0.008793125 -0.0077874293 -0.007867317 -0.0024179819 0.007582567 -0.0068410197 -0.010257797 0.00998055 -0.005475977 0.0097791245 -0.0055601513 0.0058492846 0.004896217 0.004007715 -0.002721931 0.00036837684 -0.01119448 -0.0033648699 -0.0026906005 0.011748246 -0.0044142185 -0.006467427 0.004565147 -0.00030673356 -0.0033125586 0.0059966478 0.0046015657 -0.001238847 -0.001182103 0.009705688 0.007433755 0.00635712 0.0071736397 0.0044289716 -0.00079102896 -0.006336077 -0.0001093398 -0.00035841984 -0.00082370004 -0.008797262 0.00788584 -0.0060143373 -0.007053956 -0.0030515597 -0.0006234644 -0.008479285 0.0006980669 -0.0047868337 -0.0025183877 -0.008776499 0.0013366155 0.002019799 -0.0010179601 -0.004846388 -0.0026561588 0.0074339733 0.002790939 -0.00986894 -0.00391367 0.005900712 0.0008099147 -0.011576831 0.006169113 -0.008881024 -0.006231256 0.0014244723 -0.004030003 0.0039072456 0.011083169 -0.0023103717 0.012232677 0.0011080992 0.010355018 0.0053518196 -0.009561058 -0.004285538 0.0061314 0.005252824 0.0077278744 0.008769567 0.008656885 -0.010764219 0.002249267 -0.004668456 0.0027746903 0.00674952 0.0047001094 0.00718805 0.0029828835 -0.00047391606 0.0050028907 -0.001722347 0.001496109 0.011433469 -0.0070081786 0.005401823 -0.009899816
