13 50
14 -0.0013346296 0.0005770309 0.010068888 0.01788005 -0.019070925 -0.014592477 0.013417458 0.018448142 -0.011057746 -0.007872513 0.014963823 -0.0034140232 -0.009064364 0.013218483 -0.00992287 -0.0037436655 0.0068132724 0.0032592085 -0.017535113 -0.019451704 0.014755309 0.010047284 0.014691902 0.0020511434 0.01309 -0.0066729453 -0.0018440104 0.012521911 -0.015699338 -0.008026128 -0.014925024 -0.0025551785 0.019379066 -0.015798148 -0.004990204 -0.0044867313 0.017028598 -0.011915411 0.00016736773 -0.009861226 -0.019179365 0.009759943 -0.01808854 -0.009154819 0.0010044051 -0.00032773914 -0.014977288 0.019216625 0.010193447 0.018422032
2 -0.016424151 0.009050814 -0.008416342 0.0015058721 0.016892277 -0.009017042 0.009233318 -0.013293948 -0.007502737 0.018704552 -0.0031776708 0.0004975721 -0.008244237 -0.015388783 -0.0029950058 0.0049096057 -0.0012591231 0.0115937255 -0.005875215 0.004399682 0.010888118 0.016548777 -0.002435428 -0.018214578 0.008883894 0.0011314586 0.014944106 -0.0012374099 -0.0055064587 -0.017541263 -0.0016910697 0.005343316 0.010841536 0.013643504 -0.01155757 0.003527307 0.012594465 -0.009654196 -0.006134804 0.013460775 0.003284078 0.00023258121 0.0067951973 0.00025949776 0.019681588 0.010288518 -0.017583627 -0.014144364 0.0017831245 0.012766068
18 -0.01744902 0.007402366 0.010237627 0.011425149 0.014722032 -0.0125293005 0.0027037915 0.012595587 -0.006553727 -0.012466084 -0.0008068156 -0.01702848 -0.01128394 0.014242322 0.0066435076 0.014375924 0.014554096 0.016043527 -0.008316174 -0.0014940621 0.0046971138 -0.009220435 0.017745163 -0.019430744 0.0139208315 0.005789961 -0.009786946 0.00947517 -0.003956168 0.0132739935 0.019982748 -0.009248398 -0.00097549736 -0.012313543 0.007350418 0.005211967 0.014533263 0.012019939 0.019180669 0.018267317 0.01586496 -0.014252379 -0.018709399 -0.0010638031 -0.005410509 0.016131377 0.01211498 -0.003155734 0.003018409 0.0036874095
0 0.015510017 -0.018948035 -0.000632904 0.0066335183 -0.0021785963 0.01657225 0.018306075 0.013355253 -0.002134595 0.015266645 -0.01702543 0.0062050195 -0.009272539 -0.010173591 0.0069815875 0.010635033 0.01632149 -0.010711048 0.014287058 0.013049952 -0.007477711 -0.017596744 0.011653324 0.013441378 -0.0014183222 -0.013349674 -0.0139788 -0.0044669895 0.009940763 -0.00749347 -0.018702371 0.0071788803 0.009812335 -0.013560628 0.0021364405 -0.004485389 0.00057976384 -0.019967075 0.0054091164 -0.009836191 0.0022421363 -0.003413825 0.004259124 -0.016068012 -0.0046984097 0.00550172 0.010954083 -0.0047965287 -0.018958582 0.008943675
13 -1.4133422e-05 0.006300643 -0.013693317 -0.0029128464 0.0149225425 0.014319565 -0.006993398 0.0056846165 -0.0175744 0.01212721 -0.009122079 -0.0067157596 0.018621307 0.0018173201 0.014778041 -0.012290175 0.011275395 0.020919668 -0.017819148 -0.010645327 -0.014132355 -0.0097109135 -0.0066506225 -0.016740493 0.016321 -0.009636473 0.017006824 0.011309805 -0.013595693 0.0077001704 0.010902823 -0.0155474935 -0.014582924 -0.0059002275 -0.017690748 -0.0036191305 3.562859e-05 0.006466496 0.0029452064 -0.0021432803 -0.011221628 0.0032332833 -0.0021885836 0.013213771 0.008787254 0.00926439 0.003100676 -0.005271326 -0.008584145 -0.0019456937
8 0.002423297 -0.0050373944 -0.014341878 -0.015888391 -0.018560577 -0.012333076 -0.0032502308 -0.008104842 -0.014026237 -0.007737447 0.008650576 -0.007938735 0.016580127 0.0031586469 -0.01474076 0.018779807 0.016416384 0.012235208 -0.014676933 0.011324168 0.008009489 0.010246169 0.009745581 0.0042431494 -0.005950573 0.016795628 0.019507768 0.008417073 -0.0062630614 -0.00015250141 0.0025924456 -0.017719325 -0.016332628 -0.0015832535 0.00210873 -0.011859623 -0.008451664 -0.014897754 0.016852938 -3.3664757e-05 -0.008880503 0.010967414 0.017914917 -0.00860828 0.016908046 0.011083483 0.012108026 0.001124973 0.016598871 -0.01396686
10 -0.016598532 0.018642036 -0.00048524723 -0.0039766305 0.008937686 -0.008348089 0.0058459835 0.014279175 0.011497774 -0.015238471 0.018935097 0.009173359 0.007924162 -0.012344521 0.016806817 -0.0044015846 0.018388256 -0.010036909 -0.016837355 0.01328911 0.0033764865 -0.0045415084 0.019855555 0.019347502 -0.019354653 0.0050604185 0.01239256 0.008261765 0.0036607143 0.00079800084 0.0014584565 -0.008030759 -0.014196295 -0.0049082497 0.007651207 0.017364584 0.018962875 -0.012131933 -0.01879613 0.019278849 0.006901046 0.0101872105 0.012296129 -0.0058763106 0.015241168 0.0058960686 0.0058911587 -0.0047637993 -0.006191403 -0.004774663
19 0.008460573 0.0002081137 -0.019257173 -0.019469356 -0.01261698 -0.00044741703 0.0042445487 0.019150177 0.010669874 -0.008804966 0.00068340125 0.009778086 0.0154284695 -0.0022459587 0.008529871 -0.011758733 -0.0010886588 0.01682643 -0.0052236933 -0.01964192 0.011607553 -0.00789788 -0.0018593952 0.020310665 -0.004357847 -0.0094760535 -0.010630243 0.014443142 -0.011744217 0.0041453275 -0.010511921 0.01189811 0.0088658 0.0046360493 -0.0031777953 -0.0057825185 0.018459266 0.010396785 -0.004327964 -0.019213133 -0.014871516 -0.0022573965 -0.0018519777 -0.005347671 0.019920621 -0.0008228816 0.011910623 -0.014872122 -0.004913293 -0.011133527
20 -0.014345568 0.0024397294 -0.01439476 -0.004438512 0.007183793 0.011538894 0.002758406 0.004538619 -0.008652446 0.014284222 -0.012495396 0.009190156 -0.016499985 0.0041794437 -0.010040565 -0.008515387 -0.0057535414 0.011788163 0.0112227565 -0.010301102 0.001673757 -0.017083732 0.016244216 0.018771559 -0.005320757 0.0016133572 0.0014213364 0.011316254 -0.017518323 0.0011403963 0.013797333 0.0042716605 0.0024406032 -0.019173065 0.01686567 -0.012743958 -0.0056490237 0.006891784 -0.0014801341 0.0026343288 0.0035911861 -0.013754877 -0.019744683 0.017849293 0.012813273 -0.013623603 0.0068830997 0.00036802643 0.009573848 -0.014238137
7 0.007854258 0.008813765 0.019893143 -0.009169108 -0.003198931 -0.015037424 -0.01910326 -0.017903175 -0.002809054 -0.013358247 0.009888798 -0.012656591 0.005025509 0.0014903921 -0.0070215757 -0.0019853106 0.020831617 0.019215139 -0.009667405 0.017980203 -0.011251941 0.011900262 -0.005320674 0.007310579 0.0062572444 0.013992915 -0.0046600318 0.018259713 0.014835523 -0.019309655 -0.016043061 -0.015905185 0.0060333284 -0.0064411066 -0.014129455 -0.016702265 0.017351907 0.0038691782 -0.018625302 -0.009860627 0.006370008 -0.009659103 0.010283395 -0.008853458 0.00608048 -0.015956322 0.012741302 0.0097244 0.0017684057 0.00603043
3 -0.017601859 0.0044064713 -0.0018670054 -0.018953461 -0.019271044 -0.0031892431 0.009084777 0.007654633 -0.013830588 -0.013981664 -0.009902152 -0.0049280683 -0.014452112 -0.019221684 -0.0057292064 -0.016847337 -0.011213045 -0.01032731 -0.005483623 -0.0036141416 -0.017958283 -0.0014012359 0.017026424 0.015744783 -0.014093686 -0.0072484626 0.006438877 -0.018413795 0.0025621962 0.012769785 0.011360412 -0.018188596 -0.008850868 -0.0170757 -0.0003396992 0.018050328 0.012732288 0.010002631 0.010148538 -0.0068872822 0.019050138 -0.014947179 -0.014767154 -0.0048859487 -0.0007325711 -0.006332861 -0.0008935074 0.015105983 -0.0012441208 -0.0031759941
11 0.005433266 -0.016686201 0.015628718 0.016957408 -0.019326545 0.0048118443 0.01993436 -0.015166762 -0.014203121 -0.01560221 0.01683313 -0.00145673 0.018346628 -0.016322462 0.007465106 0.0052040024 0.0017652756 0.004967548 -0.015220755 -0.018860796 0.004694196 0.012252788 0.01627307 0.011629083 -0.0014926151 0.016618093 -0.018619418 0.0070251557 0.00037660904 0.0077258972 0.014813931 -0.013667537 0.011171434 -0.019330515 -0.001721969 -0.017480114 -0.009961977 0.018567756 -0.0036719919 0.0056992113 0.018150087 0.017810104 -0.016522074 -0.0061433134 0.020054705 0.010303446 -0.0030647865 -0.01739181 0.0059432946 -0.013396335
9 0.016168758 -0.008856923 -0.0021336142 0.0019533217 -0.0006550636 0.0021452287 0.012482278 0.00017587766 -0.006946629 -0.003248501 0.011985445 0.0029241885 -0.0014407288 0.018687371 -0.009949495 -0.001817182 0.018862339 0.013999928 0.0025501298 -0.018027086 0.0023111592 -0.004607702 0.019350624 0.00281301 0.0030661025 0.0049032425 -0.0036478112 -0.009577174 0.00021705146 -0.0041287965 0.01323917 0.017552562 -0.0012278138 0.0053711287 -0.012368302 0.0031465904 -0.013472021 -0.017458476 -0.011912994 -0.01811415 0.014628786 -0.011636736 0.016329119 -0.0146920215 0.007352909 0.01941559 -0.015467074 -0.019862257 -0.008575739 -0.005410913
